svm_type c_svc
kernel_type rbf
gamma 0.3333333333333333
nr_class 5
total_sv 30
rho 0.1560553685013749 0.20258868785582368 0.24810179139682517 -0.032172419594894225 0.047986875352133584 0.10650092563897823 -0.18730098460913852 0.05760207790141396 -0.2331752968757125 -0.3076643497681267
label 4 1 5 2 3
probA -3.141385137571843 -2.1744315520806983 -3.3296737718086438 -2.004799928377187 -2.993575656566004 -3.5269968272432712 -2.8640732408472633 -3.1466234564264015 -2.3647018664410098 -3.2969458343465763
probB 0.3420784432971364 0.030223755809938437 0.36664984326094474 -0.01877811990991231 -0.2350285681472541 0.15598521928965853 -0.627802447073188 0.2501738589589564 -0.48503209903050176 -0.39216524334218816
nr_sv 4 8 4 11 3
SV
0.546362457907847 0.5679996620818274 0.5906846728960764 0.4015041550594825 1:4.04410275782821 2:21.0 3:17.0 
0.15506306557704455 0.16187944904973395 0.17070824206250165 0.16807684842405818 1:4.01341033783092 2:20.0 3:17.0 
0.4892668331580049 0.5090789293010569 0.5269487034985681 0.47470010241446636 1:4.972652144721433 2:21.0 3:17.0 
0.9275371555783514 0.9643178746616954 1.0 0.7621588299191615 1:4.96829010490594 2:19.0 3:16.0 
-0.23473428336482252 0.2872702704747502 0.0 0.19403216102923407 1:0.961893609710377 2:19.0 3:25.0 
-0.24693889714533518 0.26962267070114193 0.16330878331880833 0.20712721191864406 1:0.980702511410284 2:21.0 3:27.0 
-0.28222663522548314 0.387988128159614 0.49036957471052134 0.30296861841178085 1:1.07146064247891 2:21.0 3:27.0 
-0.3681774350604123 0.5068815242000886 0.0 0.36917743711397166 1:0.93534728419568 2:21.0 3:25.0 
-0.29590322188580764 0.371790318870916 0.9121287367455173 0.31715139052187175 1:1.09305721255289 2:19.0 3:25.0 
-0.43936815168930965 0.6154783149610719 0.6484678345754151 0.4644743957229596 1:1.05722015402507 2:19.0 3:27.0 
-0.08914131258924002 0.04040100888078582 0.0 0.04365131787894455 1:1.03431241067551 2:19.0 3:27.0 
-0.16173957526083735 0.15079713183364432 0.895976066898323 0.14088595787719116 1:1.0556504303751 2:21.0 3:25.0 
-0.7970639217358525 -0.9519724603448163 1.0 0.7672281467995701 1:5.940894329109396 2:9.0 3:16.0 
-0.0656886607424709 -0.07815826428378793 0.08774096635019367 0.06350298825385182 1:5.94681613198311 2:0.0 3:16.0 
-0.6832988466588119 -0.8149967669639914 0.905290172434337 0.65612724294884 1:5.00581469397326 2:1.0 3:15.0 
-0.6572244859571782 -0.7851018764894171 0.8713447284554496 0.6320174624728241 1:5.994942683571924 2:0.0 3:17.0 
-0.3361769096002742 -0.8763245805361842 -0.4111806567643165 0.3102198719470707 1:2.93174897057569 2:21.0 3:24.0 
-0.17894350433014403 -0.0 -0.23682412204330527 0.1542308900279416 1:3.04116708872258 2:21.0 3:24.0 
-0.49892566192565735 -0.5267686921837069 -0.6488556734582474 0.0 1:2.94212541215371 2:21.0 3:21.0 
-0.3200114139778538 -0.0 -0.3875190093520217 0.29277920819495185 1:3.05463800727442 2:19.0 3:24.0 
-0.3631064112226808 -0.37319725828505634 -0.4512210363381647 0.7215696017099495 1:3.05317535645736 2:19.0 3:21.0 
-0.09254404673618795 -0.03037223091484817 -0.11764879695610446 0.0 1:2.88767074106435 2:19.0 3:22.0 
-0.026942598729427523 -0.1151872417285945 -0.0 0.5346384453286479 1:2.99118689516014 2:21.0 3:21.0 
-0.2265749988131135 -0.8851191149574938 -0.2979135617216094 0.22108896135654288 1:2.94160872986284 2:19.0 3:24.0 
-0.06102323394944418 -0.0 -0.06964415830637864 0.08171885203767086 1:3.09695431301405 2:21.0 3:23.0 
-0.04326725118337629 -0.03212434142387503 -0.06543372189926941 0.0 1:3.10145706762725 2:21.0 3:22.0 
-0.14082558798898648 -0.271157536218826 -0.17813513040056292 0.0 1:2.93572570862317 2:19.0 3:21.0 
-0.8412672765788822 -0.9401577664194152 -0.9766291348027111 -1.0 1:5.98601370500161 2:21.0 3:20.0 
-0.353344408610233 -0.4236317502976353 -0.4401539148182152 -0.3162458306027753 1:5.97665852281087 2:19.0 3:20.0 
-0.6118282506280533 -0.6756789737575474 -0.7020927908541595 -1.0 1:5.07599682954226 2:19.0 3:20.0 
