svm_type c_svc
kernel_type rbf
gamma 0.125
nr_class 5
total_sv 15
rho 0.0 0.0 0.0 0.0 0.0 0.0 0.0 0.0 0.0 0.0
label 1 2 3 4 5
nr_sv 3 3 3 3 3
SV
0.5414941254173408 0.0 0.0 0.0 0:20.0 1:0.0 2:1.0 3:0.0 4:0.0 5:0.0 6:1.0 7:10.0 8:1.0 
1.0 0.40155113465535963 0.08942549112477369 0.014470646919119487 0:20.0 1:0.0 2:1.0 3:0.0 4:0.0 5:0.0 6:1.0 7:10.0 8:1.0 
1.0 1.0 1.0 1.0 0:20.0 1:0.0 2:1.0 3:0.0 4:0.0 5:0.0 6:1.0 7:10.0 8:1.0 
-0.5414941254173408 0.5414941254173408 0.0 0.0 0:21.0 1:0.0 2:0.0 3:1.0 4:0.0 5:0.0 6:1.0 7:11.0 8:1.0 
-1.0 1.0 0.40155113465535963 0.08942549112477369 0:21.0 1:0.0 2:0.0 3:1.0 4:0.0 5:0.0 6:1.0 7:11.0 8:1.0 
-1.0 1.0 1.0 1.0 0:21.0 1:0.0 2:0.0 3:1.0 4:0.0 5:0.0 6:1.0 7:11.0 8:1.0 
-0.0 -0.5414941254173408 0.5414941254173408 0.0 0:22.0 1:0.0 2:0.0 3:0.0 4:1.0 5:0.0 6:1.0 7:12.0 8:1.0 
-0.40155113465535963 -1.0 1.0 0.40155113465535963 0:22.0 1:0.0 2:0.0 3:0.0 4:1.0 5:0.0 6:1.0 7:12.0 8:1.0 
-1.0 -1.0 1.0 1.0 0:22.0 1:0.0 2:0.0 3:0.0 4:1.0 5:0.0 6:1.0 7:12.0 8:1.0 
-0.0 -0.0 -0.5414941254173408 0.5414941254173408 0:23.0 1:0.0 2:0.0 3:0.0 4:0.0 5:1.0 6:1.0 7:13.0 8:1.0 
-0.08942549112477369 -0.40155113465535963 -1.0 1.0 0:23.0 1:0.0 2:0.0 3:0.0 4:0.0 5:1.0 6:1.0 7:13.0 8:1.0 
-1.0 -1.0 -1.0 1.0 0:23.0 1:0.0 2:0.0 3:0.0 4:0.0 5:1.0 6:1.0 7:13.0 8:1.0 
-0.0 -0.0 -0.0 -0.5414941254173408 0:24.0 1:0.0 2:0.0 3:0.0 4:0.0 5:0.0 6:0.0 7:14.0 8:1.0 
-0.014470646919119487 -0.08942549112477369 -0.40155113465535963 -1.0 0:24.0 1:0.0 2:0.0 3:0.0 4:0.0 5:0.0 6:0.0 7:14.0 8:1.0 
-1.0 -1.0 -1.0 -1.0 0:24.0 1:0.0 2:0.0 3:0.0 4:0.0 5:0.0 6:0.0 7:14.0 8:1.0 
